digraph Tree {
node [shape=box, style="filled", color="black"] ;
0 [label="X[4] <= 129.5\ngini = 0.5\nsamples = 49000\nvalue = [24512, 24488]", fillcolor="#e5813900"] ;
1 [label="X[0] <= 19940.5\ngini = 0.433\nsamples = 28899\nvalue = [19736, 9163]", fillcolor="#e5813989"] ;
0 -> 1 [labeldistance=2.5, labelangle=45, headlabel="True"] ;
2 [label="X[12] <= 0.5\ngini = 0.364\nsamples = 17768\nvalue = [13525, 4243]", fillcolor="#e58139af"] ;
1 -> 2 ;
3 [label="gini = 0.346\nsamples = 16989\nvalue = [13208, 3781]", fillcolor="#e58139b6"] ;
2 -> 3 ;
4 [label="gini = 0.483\nsamples = 779\nvalue = [317, 462]", fillcolor="#399de550"] ;
2 -> 4 ;
5 [label="X[12] <= 0.5\ngini = 0.493\nsamples = 11131\nvalue = [6211, 4920]", fillcolor="#e5813935"] ;
1 -> 5 ;
6 [label="gini = 0.485\nsamples = 9964\nvalue = [5856, 4108]", fillcolor="#e581394c"] ;
5 -> 6 ;
7 [label="gini = 0.423\nsamples = 1167\nvalue = [355, 812]", fillcolor="#399de590"] ;
5 -> 7 ;
8 [label="X[4] <= 138.5\ngini = 0.362\nsamples = 20101\nvalue = [4776, 15325]", fillcolor="#399de5b0"] ;
0 -> 8 [labeldistance=2.5, labelangle=-45, headlabel="False"] ;
9 [label="X[12] <= 0.5\ngini = 0.48\nsamples = 6463\nvalue = [2579, 3884]", fillcolor="#399de556"] ;
8 -> 9 ;
10 [label="gini = 0.494\nsamples = 5251\nvalue = [2344, 2907]", fillcolor="#399de531"] ;
9 -> 10 ;
11 [label="gini = 0.313\nsamples = 1212\nvalue = [235, 977]", fillcolor="#399de5c2"] ;
9 -> 11 ;
12 [label="X[4] <= 149.5\ngini = 0.27\nsamples = 13638\nvalue = [2197, 11441]", fillcolor="#399de5ce"] ;
8 -> 12 ;
13 [label="gini = 0.3\nsamples = 6936\nvalue = [1273, 5663]", fillcolor="#399de5c6"] ;
12 -> 13 ;
14 [label="gini = 0.238\nsamples = 6702\nvalue = [924, 5778]", fillcolor="#399de5d6"] ;
12 -> 14 ;
}